{
  "pixel_classifier_type": "OpenCVPixelClassifier",
  "metadata": {
    "inputPadding": 0,
    "inputResolution": {
      "pixelWidth": {
        "value": 0.9999796750489577,
        "unit": "µm"
      },
      "pixelHeight": {
        "value": 0.9999796750489577,
        "unit": "µm"
      },
      "zSpacing": {
        "value": 1.0,
        "unit": "z-slice"
      },
      "timeUnit": "SECONDS",
      "timepoints": []
    },
    "inputWidth": 512,
    "inputHeight": 512,
    "inputNumChannels": 3,
    "outputType": "CLASSIFICATION",
    "outputChannels": [
      {
        "name": "Ignore*",
        "color": 16776702
      },
      {
        "name": "Islet",
        "color": -65281
      }
    ],
    "classificationLabels": {
      "0": {
        "name": "Ignore*",
        "color": [
          180,
          180,
          180
        ]
      },
      "1": {
        "name": "Islet",
        "color": [
          255,
          0,
          255
        ]
      }
    }
  },
  "op": {
    "type": "data.op.channels",
    "colorTransforms": [
      {
        "channelName": "DAPI"
      },
      {
        "channelName": "520"
      },
      {
        "channelName": "570"
      },
      {
        "channelName": "AF"
      }
    ],
    "op": {
      "type": "op.core.sequential",
      "ops": [
        {
          "type": "op.core.sequential",
          "ops": [
            {
              "type": "op.core.split-merge",
              "ops": [
                {
                  "type": "op.filters.multiscale",
                  "features": [
                    "GAUSSIAN",
                    "LAPLACIAN",
                    "WEIGHTED_STD_DEV",
                    "GRADIENT_MAGNITUDE"
                  ],
                  "sigmaX": 1.0,
                  "sigmaY": 1.0
                },
                {
                  "type": "op.filters.multiscale",
                  "features": [
                    "GAUSSIAN",
                    "LAPLACIAN",
                    "WEIGHTED_STD_DEV",
                    "GRADIENT_MAGNITUDE"
                  ],
                  "sigmaX": 4.0,
                  "sigmaY": 4.0
                },
                {
                  "type": "op.filters.multiscale",
                  "features": [
                    "GAUSSIAN",
                    "LAPLACIAN",
                    "WEIGHTED_STD_DEV",
                    "GRADIENT_MAGNITUDE"
                  ],
                  "sigmaX": 8.0,
                  "sigmaY": 8.0
                }
              ]
            },
            {
              "type": "op.ml.feature-preprocessor",
              "preprocessor": {
                "normalizer": {
                  "offsets": [
                    0.0,
                    0.0,
                    0.0,
                    0.0,
                    0.0,
                    0.0,
                    0.0,
                    0.0,
                    0.0,
                    0.0,
                    0.0,
                    0.0,
                    0.0,
                    0.0,
                    0.0,
                    0.0,
                    0.0,
                    0.0,
                    0.0,
                    0.0,
                    0.0,
                    0.0,
                    0.0,
                    0.0,
                    0.0,
                    0.0,
                    0.0,
                    0.0,
                    0.0,
                    0.0,
                    0.0,
                    0.0,
                    0.0,
                    0.0,
                    0.0,
                    0.0,
                    0.0,
                    0.0,
                    0.0,
                    0.0,
                    0.0,
                    0.0,
                    0.0,
                    0.0,
                    0.0,
                    0.0,
                    0.0,
                    0.0
                  ],
                  "scales": [
                    1.0,
                    1.0,
                    1.0,
                    1.0,
                    1.0,
                    1.0,
                    1.0,
                    1.0,
                    1.0,
                    1.0,
                    1.0,
                    1.0,
                    1.0,
                    1.0,
                    1.0,
                    1.0,
                    1.0,
                    1.0,
                    1.0,
                    1.0,
                    1.0,
                    1.0,
                    1.0,
                    1.0,
                    1.0,
                    1.0,
                    1.0,
                    1.0,
                    1.0,
                    1.0,
                    1.0,
                    1.0,
                    1.0,
                    1.0,
                    1.0,
                    1.0,
                    1.0,
                    1.0,
                    1.0,
                    1.0,
                    1.0,
                    1.0,
                    1.0,
                    1.0,
                    1.0,
                    1.0,
                    1.0,
                    1.0
                  ],
                  "missingValue": 0.0
                },
                "inputLength": 48,
                "outputLength": 48
              }
            }
          ]
        },
        {
          "type": "op.ml.opencv-statmodel",
          "model": {
            "class": "ANN_MLP",
            "statmodel": {
              "opencv_ml_ann_mlp": {
                "format": 3,
                "layer_sizes": [
                  48,
                  2
                ],
                "activation_function": "SIGMOID_SYM",
                "f_param1": 1.0,
                "f_param2": 1.0,
                "min_val": -9.4999999999999996e-01,
                "max_val": 9.4999999999999996e-01,
                "min_val1": -9.7999999999999998e-01,
                "max_val1": 9.7999999999999998e-01,
                "training_params": {
                  "train_method": "RPROP",
                  "dw0": 1.0000000000000001e-01,
                  "dw_plus": 1.2000000000000000e+00,
                  "dw_minus": 5.0000000000000000e-01,
                  "dw_min": 1.1920928955078125e-07,
                  "dw_max": 50.0,
                  "term_criteria": {
                    "epsilon": 1.0000000000000000e-02,
                    "iterations": 1000
                  }
                },
                "input_scale": [
                  1.4030484220085862e-02,
                  -9.7707012874074783e-01,
                  3.2063713311178986e-02,
                  2.9839120484978873e-02,
                  3.3808172899535888e-02,
                  -1.3392612610754653e+00,
                  4.0309972457732789e-02,
                  -1.0924346775756633e+00,
                  1.8675989454900924e-01,
                  -5.6508580438625711e-01,
                  3.2952654739906351e-01,
                  1.9916728424739689e-02,
                  2.8351425705334932e-01,
                  -6.8571403023231980e-01,
                  4.0723695783694464e-01,
                  -5.8242429197828460e-01,
                  1.6767221358772167e-02,
                  -4.2114962840389497e-01,
                  8.0150558356744603e-02,
                  4.5064742403089442e-02,
                  5.9203648595174595e-02,
                  -6.1792776117301373e-01,
                  7.7534316620785027e-02,
                  -5.4550377801359695e-01,
                  6.2004725029240464e-03,
                  -8.5656353229975657e-01,
                  2.1888593380467513e-02,
                  1.8544214672214294e-02,
                  1.4110335632783910e-02,
                  -5.3362355465330946e-01,
                  1.6017275068948088e-02,
                  -4.5453272641939707e-01,
                  2.8897104478172498e-02,
                  -1.9151615109866440e+00,
                  4.3873684313920691e-01,
                  1.1240553241073958e-01,
                  3.6220502219589730e-02,
                  -2.5622827650148952e+00,
                  2.8304621331063912e-01,
                  -1.6798379837027382e+00,
                  3.8331016289187531e-01,
                  -1.1197808942248955e+00,
                  7.9160964340960733e+00,
                  1.0907606832362448e-02,
                  3.3854888839947095e-01,
                  -1.4581722636255108e+00,
                  3.3348511212779370e+00,
                  -9.9067830672027968e-01,
                  2.2437684663808029e-02,
                  -5.1542373225945459e-01,
                  6.6688027376394909e-01,
                  9.9550488320236538e-02,
                  3.5456182503783518e-02,
                  -7.3228239072333134e-01,
                  2.4563147389020459e-01,
                  -5.4810445772576755e-01,
                  1.2113054225051134e-02,
                  -1.5930791569236746e+00,
                  1.8148146520457673e-01,
                  1.2547720342470392e-01,
                  8.6096279276592271e-03,
                  -7.1049796209733607e-01,
                  6.9591302649598979e-02,
                  -5.3472880725780281e-01,
                  4.3066643310102549e-02,
                  -2.7191168316486074e+00,
                  3.2750335940899125e+00,
                  2.7829586721537120e-01,
                  5.1438106477138326e-02,
                  -3.8855657775754415e+00,
                  1.1268604030316332e+00,
                  -2.3009201518123343e+00,
                  5.3666101611455141e-01,
                  -1.6555829077521560e+00,
                  4.1304192597525933e+01,
                  -4.1700779648962705e-01,
                  6.3799814220963669e-01,
                  -3.2083881476693916e+00,
                  1.1585414182164959e+01,
                  -1.5679254259126880e+00,
                  3.1278864457680015e-02,
                  -6.7150319861774888e-01,
                  2.3381509021759808e+00,
                  8.7585174436672006e-02,
                  3.2398993589048089e-02,
                  -8.7062810549724956e-01,
                  5.7219351189185086e-01,
                  -6.9463409950909538e-01,
                  2.2801017493767610e-02,
                  -2.7724362921781709e+00,
                  1.2061279931643500e+00,
                  3.2599183352511080e-01,
                  1.0162520803089672e-02,
                  -8.8393559291734969e-01,
                  2.9760977051397131e-01,
                  -7.8606393904847915e-01
                ],
                "output_scale": [
                  1.0,
                  0.0,
                  1.0,
                  0.0
                ],
                "inv_output_scale": [
                  1.0,
                  0.0,
                  1.0,
                  0.0
                ],
                "weights": [
                  [
                    -5.8497297392409520e-01,
                    1.0279747814257081e+00,
                    2.6500433942926910e-01,
                    4.0369525504410619e-01,
                    1.7897467517228299e-01,
                    4.7770931866483313e-01,
                    9.5356583687826429e-02,
                    -2.1283694028628047e-01,
                    -6.8363158154401804e-01,
                    -2.7169118500224559e-01,
                    -3.4624218824941799e-01,
                    -9.9587997977717571e-02,
                    5.5478624510181318e-01,
                    -1.7584007046456418e-01,
                    -5.3431272743560232e-01,
                    -2.1447695448527557e-01,
                    -2.6876564227486051e+00,
                    9.5709519250467112e-01,
                    -5.7400717244183205e-02,
                    2.6310116882772439e-01,
                    6.6220107919660065e-01,
                    5.5423489151848915e-01,
                    -6.7572329731861724e-03,
                    2.5035303070528003e-01,
                    5.2062936954577463e-02,
                    -1.8054992081593632e-01,
                    -7.5890512328301837e-02,
                    8.1454170458677894e-02,
                    -4.8627209831879836e-01,
                    3.7129759303329268e-01,
                    -6.8232624730774427e-01,
                    -1.8993851921680049e-01,
                    -4.3949120224316837e-02,
                    3.4204295879071928e-01,
                    -8.7631524274551587e-01,
                    1.0246794419146699e+00,
                    2.3277137734136827e-01,
                    -1.2370229580599883e+00,
                    2.1764191060874438e-01,
                    8.6176889179266658e-01,
                    1.2362663873238189e+00,
                    -1.1505029688279649e+00,
                    -9.8971120024078318e-02,
                    -7.7708469230450417e-01,
                    -3.2125631347000061e-01,
                    -6.6941521466993226e-01,
                    -5.0017063656146232e-01,
                    3.4080493360524139e-01,
                    -1.4238483983011960e+00,
                    1.5232012847378467e+00,
                    6.3002619003390303e-01,
                    -4.8015493568286366e-01,
                    -4.6145891674390449e-01,
                    4.5128877192957084e-01,
                    -5.5198620077524740e-01,
                    2.4166032897661727e-02,
                    1.4948427534589193e+00,
                    2.5226741502432343e-01,
                    -6.0659227148099737e-01,
                    2.5597794081098113e-01,
                    -7.9279436805230821e-02,
                    6.3178737699839516e-01,
                    5.5670201109314577e-01,
                    -4.4630913575704895e-01,
                    -1.8965909062716862e-01,
                    4.0304314267110586e-01,
                    -1.6412158268645871e-01,
                    -5.9356012622704801e-01,
                    4.4429924422466410e-01,
                    -5.6428390364913406e-01,
                    -8.0144994260767621e-01,
                    -3.1728673253617345e-01,
                    7.9005972904144561e-01,
                    -1.2086162575086012e+00,
                    4.6828472499533969e-01,
                    7.0532744011268700e-01,
                    1.2493828476582025e-01,
                    -5.0046911709899378e-01,
                    1.8324339349825971e+00,
                    -1.1765076781641137e+00,
                    -3.0659553507757082e+00,
                    5.6213150513058281e+00,
                    -1.8070759157095204e+00,
                    -2.5261971882883077e-01,
                    -3.7569265337714858e-01,
                    7.5355816080638727e-01,
                    2.6662831000228143e-01,
                    -3.7265194834227089e-01,
                    -7.1592073820839874e-01,
                    -1.3755802675059670e-01,
                    8.5193057798433180e-01,
                    -8.1361167116193389e-01,
                    5.6936162461014572e-01,
                    -2.7831826156327710e-01,
                    -3.9557791506599174e-02,
                    -2.9874980261849904e-01,
                    3.6630134442070874e+00,
                    -5.3730257975672000e+00
                  ]
                ]
              }
            }
          },
          "requestProbabilities": false
        },
        {
          "type": "op.core.convert",
          "pixelType": "UINT8"
        }
      ]
    }
  }
}