{
  "pixel_classifier_type": "OpenCVPixelClassifier",
  "metadata": {
    "inputPadding": 0,
    "inputResolution": {
      "pixelWidth": {
        "value": 0.49998983752447884,
        "unit": "µm"
      },
      "pixelHeight": {
        "value": 0.49998983752447884,
        "unit": "µm"
      },
      "zSpacing": {
        "value": 1.0,
        "unit": "z-slice"
      },
      "timeUnit": "SECONDS",
      "timepoints": []
    },
    "inputWidth": 512,
    "inputHeight": 512,
    "inputNumChannels": 3,
    "outputType": "CLASSIFICATION",
    "outputChannels": [
      {
        "name": "Ignore*",
        "color": 16776702
      },
      {
        "name": "Nerve",
        "color": -2668215
      }
    ],
    "classificationLabels": {
      "0": {
        "name": "Ignore*",
        "color": [
          180,
          180,
          180
        ]
      },
      "1": {
        "name": "Nerve",
        "color": [
          215,
          73,
          73
        ]
      }
    }
  },
  "op": {
    "type": "data.op.channels",
    "colorTransforms": [
      {
        "channelName": "DAPI"
      },
      {
        "channelName": "520"
      },
      {
        "channelName": "570"
      },
      {
        "channelName": "AF"
      }
    ],
    "op": {
      "type": "op.core.sequential",
      "ops": [
        {
          "type": "op.core.sequential",
          "ops": [
            {
              "type": "op.core.split-merge",
              "ops": [
                {
                  "type": "op.filters.multiscale",
                  "features": [
                    "GAUSSIAN",
                    "LAPLACIAN",
                    "WEIGHTED_STD_DEV",
                    "GRADIENT_MAGNITUDE",
                    "STRUCTURE_TENSOR_EIGENVALUE_MAX",
                    "HESSIAN_DETERMINANT"
                  ],
                  "sigmaX": 1.0,
                  "sigmaY": 1.0
                },
                {
                  "type": "op.filters.multiscale",
                  "features": [
                    "GAUSSIAN",
                    "LAPLACIAN",
                    "WEIGHTED_STD_DEV",
                    "GRADIENT_MAGNITUDE",
                    "STRUCTURE_TENSOR_EIGENVALUE_MAX",
                    "HESSIAN_DETERMINANT"
                  ],
                  "sigmaX": 4.0,
                  "sigmaY": 4.0
                },
                {
                  "type": "op.filters.multiscale",
                  "features": [
                    "GAUSSIAN",
                    "LAPLACIAN",
                    "WEIGHTED_STD_DEV",
                    "GRADIENT_MAGNITUDE",
                    "STRUCTURE_TENSOR_EIGENVALUE_MAX",
                    "HESSIAN_DETERMINANT"
                  ],
                  "sigmaX": 8.0,
                  "sigmaY": 8.0
                }
              ]
            },
            {
              "type": "op.ml.feature-preprocessor",
              "preprocessor": {
                "normalizer": {
                  "offsets": [
                    0.0,
                    0.0,
                    0.0,
                    0.0,
                    0.0,
                    0.0,
                    0.0,
                    0.0,
                    0.0,
                    0.0,
                    0.0,
                    0.0,
                    0.0,
                    0.0,
                    0.0,
                    0.0,
                    0.0,
                    0.0,
                    0.0,
                    0.0,
                    0.0,
                    0.0,
                    0.0,
                    0.0,
                    0.0,
                    0.0,
                    0.0,
                    0.0,
                    0.0,
                    0.0,
                    0.0,
                    0.0,
                    0.0,
                    0.0,
                    0.0,
                    0.0,
                    0.0,
                    0.0,
                    0.0,
                    0.0,
                    0.0,
                    0.0,
                    0.0,
                    0.0,
                    0.0,
                    0.0,
                    0.0,
                    0.0,
                    0.0,
                    0.0,
                    0.0,
                    0.0,
                    0.0,
                    0.0,
                    0.0,
                    0.0,
                    0.0,
                    0.0,
                    0.0,
                    0.0,
                    0.0,
                    0.0,
                    0.0,
                    0.0,
                    0.0,
                    0.0,
                    0.0,
                    0.0,
                    0.0,
                    0.0,
                    0.0,
                    0.0
                  ],
                  "scales": [
                    1.0,
                    1.0,
                    1.0,
                    1.0,
                    1.0,
                    1.0,
                    1.0,
                    1.0,
                    1.0,
                    1.0,
                    1.0,
                    1.0,
                    1.0,
                    1.0,
                    1.0,
                    1.0,
                    1.0,
                    1.0,
                    1.0,
                    1.0,
                    1.0,
                    1.0,
                    1.0,
                    1.0,
                    1.0,
                    1.0,
                    1.0,
                    1.0,
                    1.0,
                    1.0,
                    1.0,
                    1.0,
                    1.0,
                    1.0,
                    1.0,
                    1.0,
                    1.0,
                    1.0,
                    1.0,
                    1.0,
                    1.0,
                    1.0,
                    1.0,
                    1.0,
                    1.0,
                    1.0,
                    1.0,
                    1.0,
                    1.0,
                    1.0,
                    1.0,
                    1.0,
                    1.0,
                    1.0,
                    1.0,
                    1.0,
                    1.0,
                    1.0,
                    1.0,
                    1.0,
                    1.0,
                    1.0,
                    1.0,
                    1.0,
                    1.0,
                    1.0,
                    1.0,
                    1.0,
                    1.0,
                    1.0,
                    1.0,
                    1.0
                  ],
                  "missingValue": 0.0
                },
                "inputLength": 72,
                "outputLength": 72
              }
            }
          ]
        },
        {
          "type": "op.ml.opencv-statmodel",
          "model": {
            "class": "ANN_MLP",
            "statmodel": {
              "opencv_ml_ann_mlp": {
                "format": 3,
                "layer_sizes": [
                  72,
                  2
                ],
                "activation_function": "SIGMOID_SYM",
                "f_param1": 1.0,
                "f_param2": 1.0,
                "min_val": -9.4999999999999996e-01,
                "max_val": 9.4999999999999996e-01,
                "min_val1": -9.7999999999999998e-01,
                "max_val1": 9.7999999999999998e-01,
                "training_params": {
                  "train_method": "RPROP",
                  "dw0": 1.0000000000000001e-01,
                  "dw_plus": 1.2000000000000000e+00,
                  "dw_minus": 5.0000000000000000e-01,
                  "dw_min": 1.1920928955078125e-07,
                  "dw_max": 50.0,
                  "term_criteria": {
                    "epsilon": 1.0000000000000000e-02,
                    "iterations": 1000
                  }
                },
                "input_scale": [
                  1.4886486824635168e-02,
                  -3.5047508626285162e-01,
                  6.5812872523310431e-02,
                  -7.0186087528324850e-02,
                  4.1768220026849143e-02,
                  -5.3779022273729982e-01,
                  4.9206052957872379e-02,
                  -4.7620310297983770e-01,
                  9.1316841293918964e-06,
                  -3.9857567834334001e-01,
                  5.2687589678722217e-03,
                  1.5332815124475289e-02,
                  1.5474255417561790e-02,
                  -4.6096971710844403e-01,
                  5.4067798127427312e-02,
                  2.1613857027378158e-01,
                  4.3753504320698342e-02,
                  -4.7951281611053304e-01,
                  5.4592605339537803e-02,
                  -4.4651325942576658e-01,
                  9.9687929997920544e-06,
                  -3.3208925767021963e-01,
                  2.0263444732329309e-03,
                  -7.2698969229966423e-02,
                  7.4296661947661413e-03,
                  -7.5203523015241969e-01,
                  4.2325280433063203e-02,
                  1.2689097756413689e-01,
                  3.7945996464521743e-02,
                  -9.4692213708957840e-01,
                  4.6737706958292297e-02,
                  -8.6107345750587838e-01,
                  8.2436521064996470e-06,
                  -5.6418278922509757e-01,
                  2.3306734641424542e-03,
                  -1.3297323972426899e-02,
                  3.8252746766214854e-03,
                  -8.4173033102688632e-01,
                  1.8142800470992176e-02,
                  1.7018174821252344e-02,
                  1.1815118749206776e-02,
                  -5.9944550892744752e-01,
                  1.3092711610543708e-02,
                  -5.4895471086626935e-01,
                  5.9142631219143740e-07,
                  -3.5336797123273561e-01,
                  5.8677256983830127e-04,
                  -4.5711976896637793e-02,
                  1.8490637260786015e-02,
                  -5.7098104172286457e-01,
                  5.8646983803671016e-01,
                  -4.2633418838635867e-01,
                  2.9273101369635037e-02,
                  -1.3809565963648016e+00,
                  1.6980935624924465e-01,
                  -9.8805084938311782e-01,
                  1.8708843807081162e-05,
                  -7.7727805008588524e-01,
                  2.5528361607576733e-01,
                  2.5399187469390505e-01,
                  2.9149554260958284e-02,
                  -5.8827369612146307e-01,
                  5.4264180817970997e-01,
                  2.7719437098636174e-01,
                  3.0058854983527443e-02,
                  -6.6106159203185610e-01,
                  2.7731009895117387e-01,
                  -6.1262688308594782e-01,
                  2.3559872157659962e-05,
                  -4.9897112304640923e-01,
                  3.9637733032445471e-01,
                  -1.6215276272812684e-01,
                  9.5104738645656970e-03,
                  -8.2658211523578051e-01,
                  3.6113140264659049e-01,
                  4.5475699044684442e-01,
                  2.3850883736234257e-02,
                  -1.1127255444073909e+00,
                  1.5998051356823464e-01,
                  -9.2756823241807529e-01,
                  1.6273104750917716e-05,
                  -7.1755097181496508e-01,
                  1.9430180658082266e-01,
                  -2.8646295122870857e-01,
                  4.4897649373803949e-03,
                  -9.5068848017071172e-01,
                  1.6715605840875669e-01,
                  1.8810710189949664e-01,
                  7.0512344313572502e-03,
                  -6.9601894058829694e-01,
                  8.7057251528600360e-02,
                  -7.1178600533321867e-01,
                  9.2693252277548629e-07,
                  -4.1894482599333904e-01,
                  5.7055778053093857e-02,
                  -5.1577909649224242e-02,
                  2.9846792852853951e-02,
                  -1.2109983338876071e+00,
                  1.5266993640245732e+00,
                  -3.5548017446234204e-01,
                  3.5796764384180613e-02,
                  -2.4993428117375474e+00,
                  5.5100527832456658e-01,
                  -1.6950313630465628e+00,
                  2.6819565779864194e-05,
                  -1.0859364970363903e+00,
                  2.8604690446454497e+00,
                  -3.3991829871618333e-03,
                  5.0498457648331788e-02,
                  -7.2645298456197960e-01,
                  3.0393987045853965e+00,
                  3.9508298536045000e-01,
                  3.4304629003269291e-02,
                  -7.9677960148136806e-01,
                  9.1891817958854294e-01,
                  -7.3733580414070832e-01,
                  4.4924275561024654e-05,
                  -6.1161370513073998e-01,
                  1.6060653859762009e+01,
                  -3.6444996135954671e-01,
                  1.3265213006266695e-02,
                  -9.4355981369978514e-01,
                  1.2800065979442645e+00,
                  4.5321346640775168e-01,
                  2.2717556913682317e-02,
                  -1.2396299315612496e+00,
                  4.4705903658690865e-01,
                  -1.1451908235494599e+00,
                  2.5826135640187104e-05,
                  -8.3734828514565796e-01,
                  2.5306975764791448e+00,
                  -3.3728388922602776e-01,
                  5.6204931587642117e-03,
                  -1.0473988289960681e+00,
                  5.2148779734318862e-01,
                  4.6985484589148274e-01,
                  7.1096239824599934e-03,
                  -7.1868632410182620e-01,
                  1.7569631586262577e-01,
                  -6.4519691655904521e-01,
                  1.3933640640190495e-06,
                  -4.2537186037822622e-01,
                  3.5393688880254492e-01,
                  -3.7784963607083466e-01
                ],
                "output_scale": [
                  1.0,
                  0.0,
                  1.0,
                  0.0
                ],
                "inv_output_scale": [
                  1.0,
                  0.0,
                  1.0,
                  0.0
                ],
                "weights": [
                  [
                    -9.0839441392409515e-01,
                    -4.7134117926215302e-01,
                    -3.2473743337073074e-01,
                    3.0095892031713611e-01,
                    -2.0592388482771690e-01,
                    -1.1796432247042926e-01,
                    -6.6517046911217337e-01,
                    1.3600394496166165e-01,
                    -1.0442838154401840e-01,
                    -6.5462858497567655e-01,
                    -1.1286746824941800e-01,
                    -5.8677354718901875e-01,
                    -2.4589756083381862e+00,
                    3.3964292304383945e+00,
                    2.6920091260043968e+00,
                    -2.9765993117570488e+00,
                    -2.6690238825886055e+00,
                    2.4991453993111055e+00,
                    -6.6237326124418305e-01,
                    1.2829608337729517e+00,
                    -7.8088628080339895e-01,
                    1.0149980163508656e+00,
                    -3.0490763297318613e-01,
                    -4.2844620536173522e-02,
                    -1.3153706304542251e-01,
                    -1.0059391375086011e+00,
                    -1.8888123232830190e-01,
                    -2.4966775988731271e-01,
                    -4.0282209831879862e-01,
                    4.2228482901006309e-02,
                    -6.4216624730774419e-01,
                    -2.4393295816411387e-01,
                    -3.5710112022431678e-01,
                    -5.1827727143849045e-01,
                    1.0176040525448390e-01,
                    -6.3335878828830933e-02,
                    -3.3941718265863169e-01,
                    4.4645506640638738e-01,
                    -5.9435808939125567e-01,
                    6.9852004525772893e-01,
                    6.8941721932381850e-01,
                    -2.1917058675059672e-01,
                    -4.9538752002407832e-01,
                    -2.4849167116193385e-01,
                    -1.8021991347000069e-01,
                    -4.0366261563277266e-02,
                    2.6108939543853749e-01,
                    -3.2881380261849918e-01,
                    6.7027431785880343e-01,
                    5.7816652517711842e-01,
                    -5.9533316996609675e-01,
                    -1.1259516324981073e-01,
                    -6.5451302234390418e-01,
                    4.7302895085747990e-03,
                    -8.4104030637524729e-01,
                    3.6270472791201136e-01,
                    9.5316275345891932e-01,
                    6.5991577159479142e-01,
                    7.3148668851900234e-01,
                    7.8306473491219469e-02,
                    -2.1085498368052304e+00,
                    1.0603282628206192e+00,
                    3.6419938645331453e+00,
                    -3.8803626968495744e+00,
                    -1.0640225862716871e-01,
                    -8.3238173559489226e-01,
                    9.2656513731354107e-01,
                    -1.0755813159860927e+00,
                    -4.5779675577533574e-01,
                    4.7638866211762554e-01,
                    -1.2777635426076763e+00,
                    2.6482314530978834e-01,
                    1.8691860904144555e-01,
                    1.3436878786356873e-01,
                    3.8050232499533976e-01,
                    7.5344334342726416e-01,
                    4.3062468476582005e-01,
                    6.7080005797181619e-01,
                    6.7081281498259704e-01,
                    -6.9827233585069048e-01,
                    -4.1335263461570892e-01,
                    5.0223924248510321e-01,
                    -3.0113560364552083e-01,
                    4.3390804019000589e-01,
                    2.0573734662285140e-01,
                    -2.6991543292042153e-01,
                    -1.7055568999771850e-01,
                    5.7150859598576458e-02,
                    -7.4807473820839865e-01,
                    6.3780318357924737e-01,
                    1.0854305779843318e+00,
                    -6.8321582958131066e-01,
                    -6.4568375389854160e-02,
                    4.3375547018521865e-01,
                    -4.1334019150659912e-01,
                    -5.3239027835961725e-03,
                    3.8165422654308784e-01,
                    -3.9842674280457824e-01,
                    4.3371022142570831e-01,
                    4.9770066627351151e-01,
                    -1.3417001215589361e-01,
                    6.4519616399947854e-01,
                    7.6874931866483298e-01,
                    -1.1517295565269794e+00,
                    7.8203059713719478e-02,
                    -4.7182725384835605e-01,
                    -1.3183338730022456e+00,
                    6.2822458035222095e-01,
                    -9.3947522997771726e-01,
                    -2.3623420469643894e-01,
                    4.8677752953543574e-01,
                    1.4815280580093587e-01,
                    -4.0627354485275630e-02,
                    3.2008830829105051e-01,
                    -1.6743856749532832e-01,
                    4.1101335700829994e-02,
                    7.0580516882772437e-01,
                    3.4511203391536421e-01,
                    -4.9703002881510749e-02,
                    6.9048815345525916e-01,
                    1.1446709427692798e+00,
                    -5.1364996039170230e-01,
                    -1.0221659208159364e+00,
                    -6.3897676184845563e-03,
                    -2.2824182954132202e-01,
                    6.4946837657097400e-01,
                    2.0890399303329266e-01,
                    2.9640474069956117e-02,
                    1.0174788078319945e-01,
                    -1.5637270957153962e-01,
                    -5.5153841209280741e-02,
                    7.0064105621528383e-01,
                    6.7095232191466991e-01,
                    -7.5848526273939199e-01,
                    -1.2058583805998833e-01,
                    6.9720769412294892e-01,
                    5.4622289179266648e-01,
                    2.9722128449351387e-01,
                    -6.4012896882796511e-01,
                    -2.6609081490034941e-01,
                    -6.0325469230450379e-01,
                    6.3823843887362175e-02,
                    -7.6861521466993221e-01,
                    4.0376580872057999e-01,
                    2.2611710136052410e+00,
                    -1.3839014054544601e+00
                  ]
                ]
              }
            }
          },
          "requestProbabilities": false
        },
        {
          "type": "op.core.convert",
          "pixelType": "UINT8"
        }
      ]
    }
  }
}